1.088867388794575817e+02
-5.064623902498519215e+01
-2.394755712868182229e+00
-4.789492048647301203e+01
8.924738196696631576e+01
-2.953041277336760118e+01
-4.264754800835530091e+01
-1.962020526393179409e+01
9.207733314932369240e+01
-3.007969359409474919e+01
-3.412952061509404444e+01
-2.668560921982759382e+01
9.190636969482096674e+01
-2.746489231702985023e+01
-8.911383367369367647e+00
-4.892867812249211568e+01
1.148702961459285206e+02
-4.257565508026702616e+01
-3.347494968253177205e+01
-3.669402965627022439e+01
1.028495373706017375e+02
-2.758549398881435621e+01
-5.368259171327775903e+01
-2.331886297932214802e+01
1.048621023914845551e+02
-3.893230513844182639e+01
-3.480299660890693048e+01
-2.644747923355573604e+01
1.057368627302291628e+02
-2.655971242168785551e+01
-2.766772708726431063e+01
-4.103958572383248793e+01
1.136234966963997977e+02
-1.653676945355356054e+01
-3.857244720487176437e+01
-5.311585265492189478e+01
8.391744498568391464e+01
-2.855132139951520287e+01
-4.129176235987131349e+01
-1.333134839004983263e+01
1.071339039575949528e+02
-3.555116044811767040e+01
-2.031459817528811129e+01
-5.129843257216191432e+01
1.091137220596045267e+02
-3.178880516592314720e+01
-3.075808517612500737e+01
-4.616399659194760829e+01
7.835373714163671366e+01
-6.583794772882214374e+00
-3.979798028455179804e+01
-3.676044872069523706e+01
8.099167555605806967e+01
7.935939196018360064e-01
-4.941651583927055924e+01
-2.840586568962414304e+01
8.703676741637733016e+01
-2.255003214638962916e+01
-3.126219706182273939e+01
-2.703683758388389435e+01
8.557917205437014729e+01
-4.393032335544105393e+01
-1.575821289506518674e+01
-2.237138826197612929e+01
